-0.999, -0.0001335388183593752
-0.998, -0.0010609680175781252
-0.997, -0.0027049499511718755
-0.996, -0.004921441650390625
-0.995, -0.0077846618652343755
-0.994, -0.01123969930013021
-0.993, -0.015285777936662947
-0.992, -0.019937768554687502
-0.991, -0.025153816053602427
-0.99, -0.030889154052734374
-0.989, -0.03710419755415483
-0.988, -0.04380220947265625
-0.987, -0.05094399179311899
-0.986, -0.05848506644112723
-0.985, -0.06638785196940104
-0.984, -0.07461123046875001
-0.983, -0.08311298792221969
-0.982, -0.09185557793511284
-0.981, -0.1008022271407278
-0.98, -0.10990706787109375
-0.979, -0.11913764851888023
-0.978, -0.12842519253817472
-0.977, -0.13773204425314198
-0.976, -0.1470069112141927
-0.975, -0.15621022338867188
-0.974, -0.16529715998722955
-0.973, -0.1742164742928964
-0.972, -0.1829194013323103
-0.971, -0.19136647002121496
-0.97, -0.1995095764160156
-0.969, -0.20731162759104083
-0.968, -0.21473402557373047
-0.967, -0.22172692630652224
-0.966, -0.22824923993278956
-0.965, -0.23426631644112725
-0.964, -0.23973821750217017
-0.963, -0.24463885712494723
-0.962, -0.24893141929224924
-0.961, -0.25259225401267027
-0.96, -0.25559032592773434
-0.959, -0.2579002773377953
-0.958, -0.2594971455891927
-0.957, -0.260372484357967
-0.956, -0.2605042025479404
-0.955, -0.2598772996690538
-0.954, -0.2584780796216881
-0.953, -0.25630547874937654
-0.952, -0.253351604715983
-0.951, -0.24961847683653535
-0.95, -0.24510693969726569
-0.949, -0.23982448550953583
-0.948, -0.23378155141977158
-0.947, -0.22698362956496906
-0.946, -0.21945595816153068
-0.945, -0.21121146406693886
-0.944, -0.20227243957519528
-0.943, -0.19266729018897347
-0.942, -0.18241193910796075
-0.941, -0.1715442164534229
-0.94, -0.1600977925618489
-0.939, -0.1481121344894659
-0.938, -0.13561470258159022
-0.937, -0.12265274067227804
-0.936, -0.109265189743042
-0.935, -0.09550174044095552
-0.934, -0.08140850774591621
-0.933, -0.0670326978085646
-0.932, -0.05242088515337776
-0.931, -0.03762667457469995
-0.93, -0.022699203927176337
-0.929, -0.0076888057225187045
-0.928, 0.0073466247558593755
-0.927, 0.02235440464803617
-0.926, 0.037279065436285896
-0.925, 0.052069089762369784
-0.924, 0.0666738888389186
-0.923, 0.08103774961000912
-0.922, 0.09510638412084334
-0.921, 0.10882627532572683
-0.92, 0.12215434112548829
-0.919, 0.13503848989981193
-0.918, 0.14743496197956366
-0.917, 0.15928858326371895
-0.916, 0.17056178240094863
-0.915, 0.1812085452809053
-0.914, 0.1911918183082758
-0.913, 0.2004713406266837
-0.912, 0.20901326599121087
-0.911, 0.21678580425133875
-0.91, 0.2237594055175781
-0.909, 0.229906603534405
-0.908, 0.23519968659774113
-0.907, 0.23962263557680194
-0.906, 0.24315867153735876
-0.905, 0.24578954403525904
-0.904, 0.2475041208902995
-0.903, 0.24829462972424693
-0.902, 0.2481580809301259
-0.901, 0.2470943430274424
-0.9, 0.2451121765136719
-0.899, 0.2421987414067334
-0.898, 0.23838478489296108
-0.897, 0.23367329498587305
-0.896, 0.228086769925631
-0.895, 0.22163961966378345
-0.894, 0.2143588559708505
-0.893, 0.20627013287410556
-0.892, 0.19740154509367766
-0.891, 0.18778653424464234
-0.89, 0.17745966741388494
-0.889, 0.16646526335295259
-0.888, 0.15483852124895367
-0.887, 0.1426235650256672
-0.886, 0.12986767117684347
-0.885, 0.11661818078082543
-0.884, 0.1029278478162042
-0.883, 0.08884710103874534
-0.882, 0.07443106844627251
-0.881, 0.05972800882804293
-0.88, 0.04480053812662761
-0.879, 0.029698301759830185
-0.878, 0.014488438440541753
-0.877, -0.0007785960623888478
-0.876, -0.016041259568737403
-0.875, -0.031242635498046876
-0.874, -0.04632382124643478
-0.873, -0.0612269139567698
-0.872, -0.07589476165771485
-0.871, -0.090272561763793
-0.87, -0.10430399122971755
-0.869, -0.11793558363586891
-0.868, -0.13111816535718515
-0.867, -0.1437982548075511
-0.866, -0.15592470019895638
-0.865, -0.16745374281141498
-0.864, -0.17833914561552158
-0.863, -0.18854305174890226
-0.862, -0.1980210103352865
-0.861, -0.20674126630824244
-0.86, -0.21466495448521208
-0.859, -0.22176547171951186
-0.858, -0.2280116387165768
-0.857, -0.23338509926962692
-0.856, -0.2378585169474284
-0.855, -0.24141784478549294
-0.854, -0.24404524017752027
-0.853, -0.24573365557404597
-0.852, -0.24647564004434125
-0.851, -0.24626617108031407
-0.85, -0.24510693969726552
-0.849, -0.24300266812558213
-0.848, -0.23996156825015416
-0.847, -0.23599099500070217
-0.846, -0.2311119165197596
-0.845, -0.225340255048198
-0.844, -0.21869678297776438
-0.843, -0.2112107510123284
-0.842, -0.20290294336246537
-0.841, -0.193812131524236
-0.84, -0.18397092590332031
-0.839, -0.17342098331806824
-0.838, -0.16219516699520162
-0.837, -0.1503428407259514
-0.836, -0.13790561047065547
-0.835, -0.12493665050159801
-0.834, -0.1114843203625047
-0.833, -0.09760101840995741
-0.832, -0.08333767380487352
-0.831, -0.06875231684396958
-0.83, -0.05390103436638327
-0.829, -0.03883881896615726
-0.828, -0.0236269143747729
-0.827, -0.0083242874410111
-0.826, 0.0070090547408180656
-0.825, 0.02231490216936384
-0.824, 0.03753559792258523
-0.823, 0.05261003628315899
-0.822, 0.06747888588208831
-0.821, 0.08208190437189027
-0.82, 0.09636974012586805
-0.819, 0.11028172954749009
-0.818, 0.12376886462536485
-0.817, 0.13677040451967
-0.816, 0.1492423899774966
-0.815, 0.1611331617200697
-0.814, 0.17239893450993365
-0.813, 0.18299326938894342
-0.812, 0.19287610798287894
-0.811, 0.20200913747959046
-0.81, 0.21035684975071955
-0.809, 0.21788804973182876
-0.808, 0.22456895929972331
-0.807, 0.2303772527032565
-0.806, 0.23529068068671471
-0.805, 0.2392876413198618
-0.804, 0.2423525787976323
-0.803, 0.24447230109974816
-0.802, 0.24564071679934107
-0.801, 0.24585199186238815
-0.8, 0.2451121765136719
-0.799, 0.24340437464168418
-0.798, 0.2407555349217783
-0.797, 0.23716656954159288
-0.796, 0.23265555838790597
-0.795, 0.22723533384741812
-0.794, 0.22092968767777227
-0.793, 0.21376236174210253
-0.792, 0.2057607494647686
-0.791, 0.1969562144010261
-0.79, 0.18738103986467633
-0.789, 0.17707788927701973
-0.788, 0.16608233619545992
-0.787, 0.15443754736671983
-0.786, 0.14218981289016863
-0.785, 0.1293860435308412
-0.784, 0.11607889065212672
-0.783, 0.10231862874536471
-0.782, 0.08816115851446031
-0.781, 0.07365528957419197
-0.78, 0.05886486594460228
-0.779, 0.04384108436549952
-0.778, 0.028651050519513648
-0.777, 0.01334664747298031
-0.776, -0.002009225463867188
-0.775, -0.0173573479546441
-0.774, -0.03263662298421944
-0.773, -0.0477876270445433
-0.772, -0.06275138485557155
-0.771, -0.07747027643861729
-0.77, -0.09188587142280912
-0.769, -0.10594139591894108
-0.768, -0.11958494325835131
-0.767, -0.13276114682701012
-0.766, -0.1454160063914763
-0.765, -0.1575029339729471
-0.764, -0.1689731854972193
-0.763, -0.1797854787577054
-0.762, -0.18989245764467894
-0.761, -0.19925930597153665
-0.76, -0.20784405924479163
-0.759, -0.21561805665582048
-0.758, -0.22254721190397403
-0.757, -0.22860955376016753
-0.756, -0.23377486872438522
-0.755, -0.23802733266402265
-0.754, -0.24134641654161906
-0.753, -0.24372201310748506
-0.752, -0.2451448081724106
-0.751, -0.24560648038933072
-0.75, -0.24510693969726555
-0.749, -0.24364843431449984
-0.748, -0.2412368098183283
-0.747, -0.237877913451666
-0.746, -0.23358995491087908
-0.745, -0.22838764133827355
-0.744, -0.22228960809707643
-0.743, -0.21532350302373388
-0.742, -0.2075094481948734
-0.741, -0.19888474538206594
-0.74, -0.18948011052058295
-0.739, -0.1793360782550212
-0.738, -0.16848520055872798
-0.737, -0.15697583047264882
-0.736, -0.14484874276825874
-0.735, -0.1321565341013783
-0.734, -0.11894674003428979
-0.733, -0.10527172058334065
-0.732, -0.09118223211943215
-0.731, -0.07673621764909823
-0.73, -0.06199039781358511
-0.729, -0.0469998925465939
-0.728, -0.031825792379940265
-0.727, -0.01652774723039005
-0.726, -0.0011660576367900322
-0.725, 0.014200123734907668
-0.724, 0.029512010568812273
-0.723, 0.04470774774103819
-0.722, 0.05972728565682611
-0.721, 0.07450912549965695
-0.72, 0.0890027112688337
-0.719, 0.10314543919682079
-0.718, 0.11688723347981769
-0.717, 0.13016613301523164
-0.716, 0.14293665419027843
-0.715, 0.15514576662297833
-0.714, 0.16674792749364897
-0.713, 0.17769503873499426
-0.712, 0.18794530970255532
-0.711, 0.19745853767791008
-0.71, 0.20619743589203932
-0.709, 0.21412967036401284
-0.708, 0.22121955206884097
-0.707, 0.2274427113816193
-0.706, 0.23277506456439995
-0.705, 0.237193808242022
-0.704, 0.2406818083891997
-0.703, 0.2432239311449455
-0.702, 0.2448128587965997
-0.701, 0.24544064482111594
-0.7, 0.24511217651367181
-0.699, 0.24380892267068752
-0.698, 0.24155625181892845
-0.697, 0.238354052311359
-0.696, 0.23421856496710527
-0.695, 0.2291617272548988
-0.694, 0.22320585813833993
-0.693, 0.21637365975146966
-0.692, 0.2086918990494369
-0.691, 0.2001908264950255
-0.69, 0.19090152686334427
-0.689, 0.1808656753785357
-0.688, 0.17011857745830827
-0.687, 0.15870265920230753
-0.686, 0.14666345669691733
-0.685, 0.13404732675703748
-0.684, 0.12090648865518694
-0.683, 0.1072907698862936
-0.682, 0.09325597181020294
-0.681, 0.07885073286194039
-0.68, 0.06413898887634277
-0.679, 0.049172164413119404
-0.678, 0.03401700913328562
-0.677, 0.018725610181495503
-0.676, 0.0033610591935522745
-0.675, -0.012016852745643028
-0.674, -0.02734647887060247
-0.673, -0.04256808747924431
-0.672, -0.05762226220107661
-0.671, -0.07245053538406511
-0.67, -0.08699388483220881
-0.669, -0.10119445153550438
-0.668, -0.11499944531544146
-0.667, -0.12835293252847574
-0.666, -0.14119994360643942
-0.665, -0.1534929065305795
-0.664, -0.16518220163981118
-0.663, -0.17622527846158084
-0.662, -0.18657369944555519
-0.661, -0.19619148152669272
-0.66, -0.20503545532226564
-0.659, -0.21307616362361964
-0.658, -0.2202783563268115
-0.657, -0.22661858289179232
-0.656, -0.2320654345845068
-0.655, -0.23660233481586845
-0.654, -0.24020760656808834
-0.653, -0.24286981874845226
-0.652, -0.24457882220388827
-0.651, -0.24532483593959878
-0.65, -0.24510693969726563
-0.649, -0.24392624256101414
-0.648, -0.24178748231367628
-0.647, -0.2386957562930185
-0.646, -0.23466797161210054
-0.645, -0.22971819028182766
-0.644, -0.22386399213812325
-0.643, -0.21713219228365174
-0.642, -0.20954248664046132
-0.641, -0.20113139051687087
-0.64, -0.1919286370171441
-0.639, -0.18197411228507518
-0.638, -0.17130007745732267
-0.637, -0.1599542804140033
-0.636, -0.14797696721003603
-0.635, -0.1354203170985392
-0.634, -0.1223313347488153
-0.633, -0.10876220358866767
-0.632, -0.09476344352390455
-0.631, -0.08039280094467202
-0.63, -0.06570713237040754
-0.629, -0.05076146554458495
-0.628, -0.03561667145759828
-0.627, -0.020332569062997442
-0.626, -0.004969452165409844
-0.625, 0.010413227132161456
-0.624, 0.025756288828748346
-0.623, 0.04099765471197882
-0.622, 0.05607706121212592
-0.621, 0.0709325360059109
-0.62, 0.0855130660207648
-0.619, 0.09975523301973116
-0.618, 0.11360855057801249
-0.617, 0.12701056725723628
-0.616, 0.13991515579223632
-0.615, 0.15226870664125913
-0.614, 0.1640249033873563
-0.613, 0.1751349117781765
-0.612, 0.18555616002033662
-0.611, 0.19524757787709368
-0.61, 0.20417105478140027
-0.609, 0.2122937356856168
-0.608, 0.2195790260782047
-0.607, 0.22600157531272358
-0.606, 0.23153641094072214
-0.605, 0.23616014381118963
-0.604, 0.23985486141936949
-0.603, 0.24260446293059762
-0.602, 0.24440100984046206
-0.601, 0.24523548677296259
-0.6, 0.24511217651367187
-0.599, 0.2440117011091656
-0.598, 0.24195860210058104
-0.597, 0.2389522136072959
-0.596, 0.2350078059130376
-0.595, 0.23013681527596933
-0.594, 0.22436076236217475
-0.593, 0.2177017646358406
-0.592, 0.21018621060240497
-0.591, 0.2018437211836463
-0.59, 0.19270470313095464
-0.589, 0.18281025656447206
-0.588, 0.17219547830229823
-0.587, 0.16090234157756225
-0.586, 0.14897591992069562
-0.585, 0.1364622084284403
-0.584, 0.12341312607985276
-0.583, 0.10987819105555399
-0.582, 0.09591307539506394
-0.581, 0.08156625095267282
-0.58, 0.06690162469773064
-0.579, 0.05197066486567047
-0.578, 0.036839859399298354
-0.577, 0.021561328110570883
-0.576, 0.006198190710679541
-0.575, -0.009189531752642463
-0.574, -0.024539970491077975
-0.573, -0.039793297124858205
-0.572, -0.05488992583372882
-0.571, -0.06977099994935078
-0.57, -0.08437724084188772
-0.569, -0.09865026556665547
-0.568, -0.11253686308684172
-0.567, -0.12598084492672398
-0.566, -0.13892676689745645
-0.565, -0.15132656986631196
-0.564, -0.1631302012032325
-0.563, -0.17429446045201213
-0.562, -0.18477035594922767
-0.561, -0.19452129919795078
-0.56, -0.20350348954634234
-0.559, -0.2116870565470654
-0.558, -0.21903613223252796
-0.557, -0.22552647020327046
-0.556, -0.23112601582295192
-0.555, -0.23581778543879478
-0.554, -0.23957947371273294
-0.553, -0.2423989194046465
-0.552, -0.24426550854274204
-0.551, -0.24516864558774273
-0.55, -0.24510693969726546
-0.549, -0.24408085424588152
-0.548, -0.24209449441285263
-0.547, -0.23915252061721767
-0.546, -0.23527109108811428
-0.545, -0.23046388254689645
-0.544, -0.22474785686292145
-0.543, -0.21814933263332104
-0.542, -0.21068773537181873
-0.541, -0.20239910530971283
-0.54, -0.19331258677607005
-0.539, -0.18346766300491035
-0.538, -0.17289639292795422
-0.537, -0.16164614290768847
-0.536, -0.14975681904759902
-0.535, -0.1372803224625126
-0.534, -0.12426331370603375
-0.533, -0.11075783305852266
-0.532, -0.09681422270424346
-0.531, -0.0824900736664404
-0.53, -0.06784227775411403
-0.529, -0.05292576763047789
-0.528, -0.03780124584133342
-0.527, -0.022528586738054142
-0.526, -0.007168038876046609
-0.525, 0.008220813309518914
-0.524, 0.02357860143324909
-0.523, 0.03884315624436994
-0.522, 0.05395412733006179
-0.521, 0.0688493032945223
-0.52, 0.08347743962605796
-0.519, 0.09777467598072455
-0.518, 0.11169031701305594
-0.517, 0.12516165398702364
-0.516, 0.13814221045123642
-0.515, 0.15057806314684685
-0.514, 0.16242246533303595
-0.513, 0.17362617166194094
-0.512, 0.18414617004394535
-0.511, 0.193940896113421
-0.51, 0.2029717680016343
-0.509, 0.2112056359067711
-0.508, 0.21860538057156692
-0.507, 0.22514507862269031
-0.506, 0.23079923651691392
-0.505, 0.23554412157463306
-0.504, 0.23936136080834175
-0.503, 0.24223427769989075
-0.502, 0.24415456207152827
-0.501, 0.24511255639941995
-0.5, 0.24511217651367184
-0.499, 0.24413353007120528
-0.498, 0.2422006534652406
-0.497, 0.23931253740981842
-0.496, 0.23548385600740948
-0.495, 0.23072572982334852
-0.494, 0.22505918270307093
-0.493, 0.21850596226799418
-0.492, 0.2110922105203463
-0.491, 0.2028471484111194
-0.49, 0.19380075145048253
-0.489, 0.1839937492236232
-0.488, 0.17346108975410462
-0.487, 0.16224444797805876
-0.486, 0.15038859200681695
-0.485, 0.1379392719750265
-0.484, 0.12494819861123728
-0.483, 0.11146467560227649
-0.482, 0.09754427025990138
-0.481, 0.08323532661923094
-0.48, 0.06860170828012317
-0.479, 0.05369488491417123
-0.478, 0.03858115783925257
-0.477, 0.023312641477858356
-0.476, 0.007952447602949069
-0.475, -0.007439285423642113
-0.474, -0.022800575563844166
-0.473, -0.038071558138360564
-0.472, -0.05319256536310369
-0.471, -0.06810452138976474
-0.47, -0.08274800967810289
-0.469, -0.09706434173296626
-0.468, -0.11100006365094865
-0.467, -0.12449884648135187
-0.466, -0.13750496723303637
-0.465, -0.14997007868401357
-0.464, -0.16184387257134736
-0.463, -0.1730827552951692
-0.462, -0.18363740036975051
-0.461, -0.19347085057189603
-0.46, -0.20253891850224248
-0.459, -0.21081148258568835
-0.458, -0.21825229341288774
-0.457, -0.22483660896540125
-0.456, -0.23053197160608624
-0.455, -0.235321144090005
-0.454, -0.2391814261523795
-0.453, -0.2421001953236582
-0.452, -0.24406654293310906
-0.451, -0.24506935518191816
-0.45, -0.2451069396972655
-0.449, -0.24417934553696738
-0.448, -0.2422902702442114
-0.447, -0.23944408988745683
-0.446, -0.23565647790130734
-0.445, -0.23094085687860705
-0.444, -0.2253137846363534
-0.443, -0.2188012520315831
-0.442, -0.21142250068691898
-0.441, -0.20321325488150224
-0.44, -0.1942022687639509
-0.439, -0.1844287535750717
-0.438, -0.17392462460120803
-0.437, -0.16273698852972704
-0.436, -0.15090551775127437
-0.435, -0.13848191884808836
-0.434, -0.12551261458649654
-0.433, -0.11204953678945177
-0.432, -0.0981428965393926
-0.431, -0.08385016792713024
-0.43, -0.06922824931897614
-0.429, -0.054331995430593936
-0.428, -0.039221983027958374
-0.427, -0.023958106097209723
-0.426, -0.008600567499353493
-0.425, 0.006790978207795515
-0.424, 0.0221570554945204
-0.423, 0.037435451006434826
-0.422, 0.05256577264594371
-0.421, 0.06748566737463232
-0.42, 0.0821437533674569
-0.419, 0.09647589417029165
-0.418, 0.11043127024018068
-0.417, 0.1239470162812064
-0.416, 0.1369764381722228
-0.415, 0.149465417428302
-0.414, 0.16136693446449044
-0.413, 0.17263148269263404
-0.412, 0.18321576849489796
-0.411, 0.19307790934590202
-0.41, 0.20217901911331446
-0.409, 0.21048575940333847
-0.408, 0.21796066935771222
-0.407, 0.22457745096808143
-0.406, 0.23031026896980877
-0.405, 0.23513516563607864
-0.404, 0.2390334644292025
-0.403, 0.24198810762184944
-0.402, 0.2439905383055824
-0.401, 0.24503067122572453
-0.4, 0.24511217651367195
-0.399, 0.24421481694937153
-0.398, 0.2423622890941328
-0.397, 0.2395533508300782
-0.396, 0.23580227362020126
-0.395, 0.23111996187572642
-0.394, 0.22552710128129505
-0.393, 0.21904518539202475
-0.392, 0.21170018414949113
-0.391, 0.20352104288736977
-0.39, 0.1945374396652472
-0.389, 0.1847898465769966
-0.388, 0.17431310269224876
-0.387, 0.16314867300808336
-0.386, 0.1513411103189574
-0.385, 0.1389359896528042
-0.384, 0.12598487097009436
-0.383, 0.11253690259738716
-0.382, 0.09864757034647427
-0.381, 0.0843651209718769
-0.38, 0.06975337780367942
-0.379, 0.05486380059922567
-0.378, 0.039762553243851737
-0.377, 0.02450173546559929
-0.376, 0.009144442670773235
-0.375, -0.006249117919921875
-0.374, -0.021616897865758537
-0.373, -0.036899018190618145
-0.372, -0.05203576555191331
-0.371, -0.06696792472511862
-0.37, -0.08163599475678943
-0.369, -0.0959810878941072
-0.368, -0.10994959315046476
-0.367, -0.12348509399028372
-0.366, -0.1365316848129128
-0.365, -0.1490408288189745
-0.364, -0.1609620497985456
-0.363, -0.1722514913178688
-0.362, -0.18285960327913764
-0.361, -0.19274918085853443
-0.36, -0.2018757759094238
-0.359, -0.2102090986278611
-0.358, -0.21771264114142208
-0.357, -0.22436132354024407
-0.356, -0.23012241317085594
-0.355, -0.23497850005866944
-0.354, -0.2389066131308352
-0.353, -0.24189381253509284
-0.352, -0.2439289864622516
-0.351, -0.2450006627439902
-0.35, -0.24510693969726555
-0.349, -0.24424757836689032
-0.348, -0.24242599213957053
-0.347, -0.23964635769667333
-0.346, -0.23592400941994587
-0.345, -0.23127219019300144
-0.344, -0.22570717345447075
-0.343, -0.21925471803615804
-0.342, -0.21193393307949634
-0.341, -0.20378031808856042
-0.34, -0.1948223501494436
-0.339, -0.18509904518300577
-0.338, -0.17464221226441537
-0.337, -0.1634987706157057
-0.336, -0.1517082228695054
-0.335, -0.13932213286206238
-0.334, -0.12638675003739094
-0.333, -0.11295392305983239
-0.332, -0.09907376383707196
-0.331, -0.08480365702767362
-0.33, -0.07020049802865555
-0.329, -0.05531907932605544
-0.328, -0.04021988176618303
-0.327, -0.024962805438785637
-0.326, -0.009608013445121244
-0.325, 0.005784797951027198
-0.324, 0.02115608527730908
-0.323, 0.03644361142224717
-0.322, 0.051586962116432745
-0.321, 0.06652369151951112
-0.32, 0.08120232777315028
-0.319, 0.09555854607804756
-0.318, 0.10954144539483482
-0.317, 0.12308805579524783
-0.316, 0.1361515349806401
-0.315, 0.14867763177356585
-0.314, 0.1606191385430428
-0.313, 0.17192636838688083
-0.312, 0.18255583251243412
-0.311, 0.19246542671989808
-0.31, 0.20161605251146403
-0.309, 0.20997424078801946
-0.308, 0.21750229086462475
-0.307, 0.2241736408184101
-0.306, 0.22996221426048605
-0.305, 0.23484389485969817
-0.304, 0.23879979114751707
-0.303, 0.24181257458198369
-0.302, 0.2438735127533746
-0.301, 0.24497221528627666
-0.3, 0.24511217651367193
-0.299, 0.24427291213619215
-0.298, 0.24247787468630366
-0.297, 0.23972565403120283
-0.296, 0.23603023168390447
-0.295, 0.23140235504799697
-0.294, 0.22586246502149543
-0.293, 0.2194318701499928
-0.292, 0.21213641381560072
-0.291, 0.2040048401911942
-0.29, 0.19506661007303588
-0.289, 0.18536200655951957
-0.288, 0.17492578615338614
-0.287, 0.16379925847849372
-0.286, 0.15202681677895769
-0.285, 0.13965390518295176
-0.284, 0.1267319700443545
-0.283, 0.11331004256457294
-0.282, 0.09944354450363967
-0.281, 0.08518064707622078
-0.28, 0.07058513912624784
-0.279, 0.055708467827954335
-0.278, 0.04061669230368659
-0.277, 0.02536189612339806
-0.276, 0.010007157333121115
-0.275, -0.005387272486193426
-0.274, -0.020759302178164813
-0.273, -0.03604904769204834
-0.272, -0.051196767886654344
-0.271, -0.06614315156243301
-0.27, -0.08082864145775363
-0.269, -0.09519420993455296
-0.268, -0.10918613644792732
-0.267, -0.12274794518027102
-0.266, -0.1358236019623052
-0.265, -0.14836443606006855
-0.264, -0.16031985277922256
-0.263, -0.1716458077957381
-0.262, -0.1822925913079321
-0.261, -0.19222282094581203
-0.26, -0.20139186104439402
-0.259, -0.2097693014332801
-0.258, -0.21731844770323552
-0.257, -0.22401397497246434
-0.256, -0.22982295108918216
-0.255, -0.23472784100218905
-0.254, -0.23870547652257354
-0.253, -0.2417426861825557
-0.252, -0.24382820979643632
-0.251, -0.24495031274609638
-0.25, -0.2451069396972656
-0.249, -0.2442976400037579
-0.248, -0.24252561778616397
-0.247, -0.23979490231619094
-0.246, -0.2361205776710409
-0.245, -0.23151575309298683
-0.244, -0.22599649115668402
-0.243, -0.21958837796290612
-0.242, -0.21231042288828028
-0.241, -0.2041979575256428
-0.24, -0.1952792522229645
-0.239, -0.1855931760529808
-0.238, -0.17517145670893305
-0.237, -0.16406087194520244
-0.236, -0.15230079575783295
-0.235, -0.13994268308153338
-0.234, -0.12703265168909617
-0.233, -0.11362248500938366
-0.232, -0.09976221777598064
-0.231, -0.0855091645676076
-0.23, -0.07092021460595069
-0.229, -0.05605011033034666
-0.228, -0.04095925751523033
-0.227, -0.025707556697159496
-0.226, -0.010355137441078206
-0.225, 0.0050382771153603826
-0.224, 0.02041309707484295
-0.223, 0.035707071602329186
-0.222, 0.050859773831012006
-0.221, 0.06580869277738638
-0.22, 0.080502293356871
-0.219, 0.09487611427062909
-0.218, 0.1088791972362782
-0.217, 0.12244849773226717
-0.216, 0.13553706627670603
-0.215, 0.14809055583978156
-0.214, 0.1600616214820144
-0.213, 0.17140044450190353
-0.212, 0.18206339297222005
-0.211, 0.19200819951239953
-0.21, 0.2011956090999555
-0.209, 0.20959205684155485
-0.208, 0.2171596645162563
-0.207, 0.22387167433826502
-0.206, 0.2297018307625797
-0.205, 0.23462589975033168
-0.204, 0.23862482974565213
-0.203, 0.24168108998374038
-0.202, 0.24378581691349957
-0.201, 0.24492839162203486
-0.2, 0.24511217651367181
-0.199, 0.24431650165838842
-0.198, 0.24256463594127473
-0.197, 0.23985504236280705
-0.196, 0.23620148376161182
-0.195, 0.23161458842591467
-0.194, 0.226114611952713
-0.193, 0.21972272225418946
-0.192, 0.21246466584158416
-0.191, 0.20436903371162565
-0.19, 0.19546512112087672
-0.189, 0.18579306666965695
-0.188, 0.17538756235808575
-0.187, 0.1642897983227269
-0.186, 0.15254404499325763
-0.185, 0.1401956451228791
-0.184, 0.12729595660041362
-0.183, 0.11389391938189689
-0.182, 0.10004490395245166
-0.181, 0.0857970215067322
-0.18, 0.07121403183355564
-0.179, 0.05634736959292451
-0.178, 0.04126301164093389
-0.177, 0.026013026244672218
-0.176, 0.010660475232763197
-0.175, -0.00473435927882339
-0.174, -0.02010935677812406
-0.173, -0.03540463233218948
-0.172, -0.0505604266622792
-0.171, -0.06551735865612512
-0.17, -0.08021583112234093
-0.169, -0.0945967129520274
-0.168, -0.10860620299119214
-0.167, -0.12218778287926496
-0.166, -0.13528532315261074
-0.165, -0.1478500535428167
-0.164, -0.15983129141045524
-0.163, -0.1711848515190389
-0.162, -0.1818609043895203
-0.161, -0.19182193419464444
-0.16, -0.20102316400437126
-0.159, -0.20943409334561483
-0.158, -0.21701788691069898
-0.157, -0.22374903413132277
-0.156, -0.2295944515861041
-0.155, -0.2345365095330413
-0.154, -0.2385518899399056
-0.153, -0.2416272449191655
-0.152, -0.24375120121218122
-0.151, -0.2449118237606628
-0.15, -0.2451069396972656
-0.149, -0.2443359362735591
-0.148, -0.24260185713074015
-0.147, -0.23990861818552844
-0.146, -0.23627111120291006
-0.145, -0.23170234221519775
-0.144, -0.22621821126492228
-0.143, -0.21984417092891947
-0.142, -0.21259915283487676
-0.141, -0.20451835844419614
-0.14, -0.19562989800031783
-0.139, -0.18597252623306615
-0.138, -0.17557790661875994
-0.137, -0.16449270645442185
-0.136, -0.15275619899608472
-0.135, -0.14041975348147354
-0.134, -0.1275293843681212
-0.133, -0.11413682274911917
-0.132, -0.10029204177504862
-0.131, -0.08605229983137723
-0.13, -0.0714744790965113
-0.129, -0.05661328117291772
-0.128, -0.04152905167045942
-0.127, -0.026281689110545084
-0.126, -0.010931294847571335
-0.125, 0.004462389613560267
-0.124, 0.01983974088207227
-0.123, 0.03513849981431951
-0.122, 0.050298232079855676
-0.121, 0.06525637861822517
-0.12, 0.07996135767156427
-0.119, 0.0943486045534305
-0.118, 0.1083671187281879
-0.117, 0.12195379993270232
-0.116, 0.13506161764153532
-0.115, 0.14763615243340614
-0.114, 0.1596299547733626
-0.113, 0.1709931054838884
-0.112, 0.18168186323836044
-0.111, 0.19165383556868013
-0.11, 0.20086964735395457
-0.109, 0.20929566053739432
-0.108, 0.21689386021909154
-0.107, 0.22363733752892515
-0.106, 0.2294996986064868
-0.105, 0.234456618631885
-0.104, 0.23848892222813198
-0.103, 0.24157892190684452
-0.102, 0.24371765244107998
-0.101, 0.24489431738254092
-0.1, 0.24511217651367184
-0.099, 0.24435041537099617
-0.098, 0.2426321596674274
-0.097, 0.23995577325662515
-0.096, 0.23633484821150788
-0.095, 0.23177991939987266
-0.094, 0.2263110973097104
-0.093, 0.2199494393850241
-0.092, 0.21272061565920122
-0.091, 0.20465309664450337
-0.09, 0.1957760473230383
-0.089, 0.18612949228799702
-0.088, 0.1757480718512284
-0.087, 0.164672881465047
-0.086, 0.1529480941672294
-0.085, 0.14061897196118298
-0.084, 0.12773680198702753
-0.083, 0.11435045120089499
-0.082, 0.10051524827080353
-0.081, 0.08627925569121285
-0.08, 0.07170620873492699
-0.079, 0.05684753047516499
-0.078, 0.04176913155578479
-0.077, 0.02652306641550777
-0.076, 0.011172382331616949
-0.075, -0.0042226164946684965
-0.074, -0.019599788354334
-0.073, -0.034899249412429625
-0.072, -0.05006122794315732
-0.071, -0.06502628973395241
-0.07, -0.07973480795583417
-0.069, -0.09412757192707984
-0.068, -0.10815071877409972
-0.067, -0.12174769824192583
-0.066, -0.13486230747133046
-0.065, -0.14744569937150107
-0.064, -0.1594471234965528
-0.063, -0.17082228505593608
-0.062, -0.1815212615901728
-0.061, -0.19150643333296938
-0.06, -0.20073291314307679
-0.059, -0.20917013033503046
-0.058, -0.21678113944991123
-0.057, -0.22354028434874776
-0.056, -0.22941436299469511
-0.055, -0.23438567149651743
-0.054, -0.2384307740935311
-0.053, -0.24153618407043004
-0.052, -0.2436904391646888
-0.051, -0.24488144625793395
-0.05, -0.24510693969726566
-0.049, -0.24436617864855445
-0.048, -0.24266207980628773
-0.047, -0.2399984692344384
-0.046, -0.23639008634235378
-0.045, -0.23184985508144831
-0.044, -0.22639354641327797
-0.043, -0.22004650663975758
-0.042, -0.21282760513082677
-0.041, -0.20477193956743062
-0.04, -0.19590749257405599
-0.039, -0.18627292736422635
-0.038, -0.17589985550783277
-0.037, -0.16483485570731315
-0.036, -0.15311712023469917
-0.035, -0.14079794918712554
-0.034, -0.12792327384237917
-0.033, -0.11454478246615861
-0.032, -0.1007123980057141
-0.031, -0.08648333287352257
-0.03, -0.07191446224881202
-0.029, -0.057060453901673934
-0.028, -0.04198160422996239
-0.027, -0.02673780869486888
-0.026, -0.011389144778398523
-0.025, 0.004004632881360176
-0.024, 0.019383875712410348
-0.023, 0.03468631938516545
-0.022, 0.04985152504263724
-0.021, 0.06481689676941355
-0.02, 0.07953081702407526
-0.019, 0.0939286401404518
-0.018, 0.10795933319526875
-0.017, 0.12155975275359826
-0.016, 0.13468280490782203
-0.015, 0.14727401367807144
-0.014, 0.15928584723482273
-0.013, 0.1706683073003242
-0.012, 0.1813775662441485
-0.011, 0.19137113268536915
-0.01, 0.2006095364657315
-0.009, 0.20905908185264055
-0.008, 0.21668164549796817
-0.007, 0.2234501984656758
-0.006, 0.22933823690433616
-0.005, 0.234321363868905
-0.004, 0.23838030537678057
-0.003, 0.24149724893062988
-0.002, 0.24366314818357418
-0.001, 0.2448670648126153
0.0, 0.24511217651367187
0.001, 0.2448670648126153
0.002, 0.24366314818357418
0.003, 0.24149724893062988
0.004, 0.23838030537678057
0.005, 0.234321363868905
0.006, 0.22933823690433616
0.007, 0.2234501984656758
0.008, 0.21668164549796817
0.009, 0.20905908185264055
0.01, 0.2006095364657315
0.011, 0.19137113268536915
0.012, 0.1813775662441485
0.013, 0.1706683073003242
0.014, 0.15928584723482273
0.015, 0.14727401367807144
0.016, 0.13468280490782203
0.017, 0.12155975275359826
0.018, 0.10795933319526875
0.019, 0.0939286401404518
0.02, 0.07953081702407526
0.021, 0.06481689676941355
0.022, 0.04985152504263724
0.023, 0.03468631938516545
0.024, 0.019383875712410348
0.025, 0.004004632881360176
0.026, -0.011389144778398523
0.027, -0.02673780869486888
0.028, -0.04198160422996239
0.029, -0.057060453901673934
0.03, -0.07191446224881202
0.031, -0.08648333287352257
0.032, -0.1007123980057141
0.033, -0.11454478246615861
0.034, -0.12792327384237917
0.035, -0.14079794918712554
0.036, -0.15311712023469917
0.037, -0.16483485570731315
0.038, -0.17589985550783277
0.039, -0.18627292736422635
0.04, -0.19590749257405599
0.041, -0.20477193956743062
0.042, -0.21282760513082677
0.043, -0.22004650663975758
0.044, -0.22639354641327797
0.045, -0.23184985508144831
0.046, -0.23639008634235378
0.047, -0.2399984692344384
0.048, -0.24266207980628773
0.049, -0.24436617864855445
0.05, -0.24510693969726566
0.051, -0.24488144625793395
0.052, -0.2436904391646888
0.053, -0.24153618407043004
0.054, -0.2384307740935311
0.055, -0.23438567149651743
0.056, -0.22941436299469511
0.057, -0.22354028434874776
0.058, -0.21678113944991123
0.059, -0.20917013033503046
0.06, -0.20073291314307679
0.061, -0.19150643333296938
0.062, -0.1815212615901728
0.063, -0.17082228505593608
0.064, -0.1594471234965528
0.065, -0.14744569937150107
0.066, -0.13486230747133046
0.067, -0.12174769824192583
0.068, -0.10815071877409972
0.069, -0.09412757192707984
0.07, -0.07973480795583417
0.071, -0.06502628973395241
0.072, -0.05006122794315732
0.073, -0.034899249412429625
0.074, -0.019599788354334
0.075, -0.0042226164946684965
0.076, 0.011172382331616949
0.077, 0.02652306641550777
0.078, 0.04176913155578479
0.079, 0.05684753047516499
0.08, 0.07170620873492699
0.081, 0.08627925569121285
0.082, 0.10051524827080353
0.083, 0.11435045120089499
0.084, 0.12773680198702753
0.085, 0.14061897196118298
0.086, 0.1529480941672294
0.087, 0.164672881465047
0.088, 0.1757480718512284
0.089, 0.18612949228799702
0.09, 0.1957760473230383
0.091, 0.20465309664450337
0.092, 0.21272061565920122
0.093, 0.2199494393850241
0.094, 0.2263110973097104
0.095, 0.23177991939987266
0.096, 0.23633484821150788
0.097, 0.23995577325662515
0.098, 0.2426321596674274
0.099, 0.24435041537099617
0.1, 0.24511217651367184
0.101, 0.24489431738254092
0.102, 0.24371765244107998
0.103, 0.24157892190684452
0.104, 0.23848892222813198
0.105, 0.234456618631885
0.106, 0.2294996986064868
0.107, 0.22363733752892515
0.108, 0.21689386021909154
0.109, 0.20929566053739432
0.11, 0.20086964735395457
0.111, 0.19165383556868013
0.112, 0.18168186323836044
0.113, 0.1709931054838884
0.114, 0.1596299547733626
0.115, 0.14763615243340614
0.116, 0.13506161764153532
0.117, 0.12195379993270232
0.118, 0.1083671187281879
0.119, 0.0943486045534305
0.12, 0.07996135767156427
0.121, 0.06525637861822517
0.122, 0.050298232079855676
0.123, 0.03513849981431951
0.124, 0.01983974088207227
0.125, 0.004462389613560267
0.126, -0.010931294847571335
0.127, -0.026281689110545084
0.128, -0.04152905167045942
0.129, -0.05661328117291772
0.13, -0.0714744790965113
0.131, -0.08605229983137723
0.132, -0.10029204177504862
0.133, -0.11413682274911917
0.134, -0.1275293843681212
0.135, -0.14041975348147354
0.136, -0.15275619899608472
0.137, -0.16449270645442185
0.138, -0.17557790661875994
0.139, -0.18597252623306615
0.14, -0.19562989800031783
0.141, -0.20451835844419614
0.142, -0.21259915283487676
0.143, -0.21984417092891947
0.144, -0.22621821126492228
0.145, -0.23170234221519775
0.146, -0.23627111120291006
0.147, -0.23990861818552844
0.148, -0.24260185713074015
0.149, -0.2443359362735591
0.15, -0.2451069396972656
0.151, -0.2449118237606628
0.152, -0.24375120121218122
0.153, -0.2416272449191655
0.154, -0.2385518899399056
0.155, -0.2345365095330413
0.156, -0.2295944515861041
0.157, -0.22374903413132277
0.158, -0.21701788691069898
0.159, -0.20943409334561483
0.16, -0.20102316400437126
0.161, -0.19182193419464444
0.162, -0.1818609043895203
0.163, -0.1711848515190389
0.164, -0.15983129141045524
0.165, -0.1478500535428167
0.166, -0.13528532315261074
0.167, -0.12218778287926496
0.168, -0.10860620299119214
0.169, -0.0945967129520274
0.17, -0.08021583112234093
0.171, -0.06551735865612512
0.172, -0.0505604266622792
0.173, -0.03540463233218948
0.174, -0.02010935677812406
0.175, -0.00473435927882339
0.176, 0.010660475232763197
0.177, 0.026013026244672218
0.178, 0.04126301164093389
0.179, 0.05634736959292451
0.18, 0.07121403183355564
0.181, 0.0857970215067322
0.182, 0.10004490395245166
0.183, 0.11389391938189689
0.184, 0.12729595660041362
0.185, 0.1401956451228791
0.186, 0.15254404499325763
0.187, 0.1642897983227269
0.188, 0.17538756235808575
0.189, 0.18579306666965695
0.19, 0.19546512112087672
0.191, 0.20436903371162565
0.192, 0.21246466584158416
0.193, 0.21972272225418946
0.194, 0.226114611952713
0.195, 0.23161458842591467
0.196, 0.23620148376161182
0.197, 0.23985504236280705
0.198, 0.24256463594127473
0.199, 0.24431650165838842
0.2, 0.24511217651367181
0.201, 0.24492839162203486
0.202, 0.24378581691349957
0.203, 0.24168108998374038
0.204, 0.23862482974565213
0.205, 0.23462589975033168
0.206, 0.2297018307625797
0.207, 0.22387167433826502
0.208, 0.2171596645162563
0.209, 0.20959205684155485
0.21, 0.2011956090999555
0.211, 0.19200819951239953
0.212, 0.18206339297222005
0.213, 0.17140044450190353
0.214, 0.1600616214820144
0.215, 0.14809055583978156
0.216, 0.13553706627670603
0.217, 0.12244849773226717
0.218, 0.1088791972362782
0.219, 0.09487611427062909
0.22, 0.080502293356871
0.221, 0.06580869277738638
0.222, 0.050859773831012006
0.223, 0.035707071602329186
0.224, 0.02041309707484295
0.225, 0.0050382771153603826
0.226, -0.010355137441078206
0.227, -0.025707556697159496
0.228, -0.04095925751523033
0.229, -0.05605011033034666
0.23, -0.07092021460595069
0.231, -0.0855091645676076
0.232, -0.09976221777598064
0.233, -0.11362248500938366
0.234, -0.12703265168909617
0.235, -0.13994268308153338
0.236, -0.15230079575783295
0.237, -0.16406087194520244
0.238, -0.17517145670893305
0.239, -0.1855931760529808
0.24, -0.1952792522229645
0.241, -0.2041979575256428
0.242, -0.21231042288828028
0.243, -0.21958837796290612
0.244, -0.22599649115668402
0.245, -0.23151575309298683
0.246, -0.2361205776710409
0.247, -0.23979490231619094
0.248, -0.24252561778616397
0.249, -0.2442976400037579
0.25, -0.2451069396972656
0.251, -0.24495031274609638
0.252, -0.24382820979643632
0.253, -0.2417426861825557
0.254, -0.23870547652257354
0.255, -0.23472784100218905
0.256, -0.22982295108918216
0.257, -0.22401397497246434
0.258, -0.21731844770323552
0.259, -0.2097693014332801
0.26, -0.20139186104439402
0.261, -0.19222282094581203
0.262, -0.1822925913079321
0.263, -0.1716458077957381
0.264, -0.16031985277922256
0.265, -0.14836443606006855
0.266, -0.1358236019623052
0.267, -0.12274794518027102
0.268, -0.10918613644792732
0.269, -0.09519420993455296
0.27, -0.08082864145775363
0.271, -0.06614315156243301
0.272, -0.051196767886654344
0.273, -0.03604904769204834
0.274, -0.020759302178164813
0.275, -0.005387272486193426
0.276, 0.010007157333121115
0.277, 0.02536189612339806
0.278, 0.04061669230368659
0.279, 0.055708467827954335
0.28, 0.07058513912624784
0.281, 0.08518064707622078
0.282, 0.09944354450363967
0.283, 0.11331004256457294
0.284, 0.1267319700443545
0.285, 0.13965390518295176
0.286, 0.15202681677895769
0.287, 0.16379925847849372
0.288, 0.17492578615338614
0.289, 0.18536200655951957
0.29, 0.19506661007303588
0.291, 0.2040048401911942
0.292, 0.21213641381560072
0.293, 0.2194318701499928
0.294, 0.22586246502149543
0.295, 0.23140235504799697
0.296, 0.23603023168390447
0.297, 0.23972565403120283
0.298, 0.24247787468630366
0.299, 0.24427291213619215
0.3, 0.24511217651367193
0.301, 0.24497221528627666
0.302, 0.2438735127533746
0.303, 0.24181257458198369
0.304, 0.23879979114751707
0.305, 0.23484389485969817
0.306, 0.22996221426048605
0.307, 0.2241736408184101
0.308, 0.21750229086462475
0.309, 0.20997424078801946
0.31, 0.20161605251146403
0.311, 0.19246542671989808
0.312, 0.18255583251243412
0.313, 0.17192636838688083
0.314, 0.1606191385430428
0.315, 0.14867763177356585
0.316, 0.1361515349806401
0.317, 0.12308805579524783
0.318, 0.10954144539483482
0.319, 0.09555854607804756
0.32, 0.08120232777315028
0.321, 0.06652369151951112
0.322, 0.051586962116432745
0.323, 0.03644361142224717
0.324, 0.02115608527730908
0.325, 0.005784797951027198
0.326, -0.009608013445121244
0.327, -0.024962805438785637
0.328, -0.04021988176618303
0.329, -0.05531907932605544
0.33, -0.07020049802865555
0.331, -0.08480365702767362
0.332, -0.09907376383707196
0.333, -0.11295392305983239
0.334, -0.12638675003739094
0.335, -0.13932213286206238
0.336, -0.1517082228695054
0.337, -0.1634987706157057
0.338, -0.17464221226441537
0.339, -0.18509904518300577
0.34, -0.1948223501494436
0.341, -0.20378031808856042
0.342, -0.21193393307949634
0.343, -0.21925471803615804
0.344, -0.22570717345447075
0.345, -0.23127219019300144
0.346, -0.23592400941994587
0.347, -0.23964635769667333
0.348, -0.24242599213957053
0.349, -0.24424757836689032
0.35, -0.24510693969726555
0.351, -0.2450006627439902
0.352, -0.2439289864622516
0.353, -0.24189381253509284
0.354, -0.2389066131308352
0.355, -0.23497850005866944
0.356, -0.23012241317085594
0.357, -0.22436132354024407
0.358, -0.21771264114142208
0.359, -0.2102090986278611
0.36, -0.2018757759094238
0.361, -0.19274918085853443
0.362, -0.18285960327913764
0.363, -0.1722514913178688
0.364, -0.1609620497985456
0.365, -0.1490408288189745
0.366, -0.1365316848129128
0.367, -0.12348509399028372
0.368, -0.10994959315046476
0.369, -0.0959810878941072
0.37, -0.08163599475678943
0.371, -0.06696792472511862
0.372, -0.05203576555191331
0.373, -0.036899018190618145
0.374, -0.021616897865758537
0.375, -0.006249117919921875
0.376, 0.009144442670773235
0.377, 0.02450173546559929
0.378, 0.039762553243851737
0.379, 0.05486380059922567
0.38, 0.06975337780367942
0.381, 0.0843651209718769
0.382, 0.09864757034647427
0.383, 0.11253690259738716
0.384, 0.12598487097009436
0.385, 0.1389359896528042
0.386, 0.1513411103189574
0.387, 0.16314867300808336
0.388, 0.17431310269224876
0.389, 0.1847898465769966
0.39, 0.1945374396652472
0.391, 0.20352104288736977
0.392, 0.21170018414949113
0.393, 0.21904518539202475
0.394, 0.22552710128129505
0.395, 0.23111996187572642
0.396, 0.23580227362020126
0.397, 0.2395533508300782
0.398, 0.2423622890941328
0.399, 0.24421481694937153
0.4, 0.24511217651367195
0.401, 0.24503067122572453
0.402, 0.2439905383055824
0.403, 0.24198810762184944
0.404, 0.2390334644292025
0.405, 0.23513516563607864
0.406, 0.23031026896980877
0.407, 0.22457745096808143
0.408, 0.21796066935771222
0.409, 0.21048575940333847
0.41, 0.20217901911331446
0.411, 0.19307790934590202
0.412, 0.18321576849489796
0.413, 0.17263148269263404
0.414, 0.16136693446449044
0.415, 0.149465417428302
0.416, 0.1369764381722228
0.417, 0.1239470162812064
0.418, 0.11043127024018068
0.419, 0.09647589417029165
0.42, 0.0821437533674569
0.421, 0.06748566737463232
0.422, 0.05256577264594371
0.423, 0.037435451006434826
0.424, 0.0221570554945204
0.425, 0.006790978207795515
0.426, -0.008600567499353493
0.427, -0.023958106097209723
0.428, -0.039221983027958374
0.429, -0.054331995430593936
0.43, -0.06922824931897614
0.431, -0.08385016792713024
0.432, -0.0981428965393926
0.433, -0.11204953678945177
0.434, -0.12551261458649654
0.435, -0.13848191884808836
0.436, -0.15090551775127437
0.437, -0.16273698852972704
0.438, -0.17392462460120803
0.439, -0.1844287535750717
0.44, -0.1942022687639509
0.441, -0.20321325488150224
0.442, -0.21142250068691898
0.443, -0.2188012520315831
0.444, -0.2253137846363534
0.445, -0.23094085687860705
0.446, -0.23565647790130734
0.447, -0.23944408988745683
0.448, -0.2422902702442114
0.449, -0.24417934553696738
0.45, -0.2451069396972655
0.451, -0.24506935518191816
0.452, -0.24406654293310906
0.453, -0.2421001953236582
0.454, -0.2391814261523795
0.455, -0.235321144090005
0.456, -0.23053197160608624
0.457, -0.22483660896540125
0.458, -0.21825229341288774
0.459, -0.21081148258568835
0.46, -0.20253891850224248
0.461, -0.19347085057189603
0.462, -0.18363740036975051
0.463, -0.1730827552951692
0.464, -0.16184387257134736
0.465, -0.14997007868401357
0.466, -0.13750496723303637
0.467, -0.12449884648135187
0.468, -0.11100006365094865
0.469, -0.09706434173296626
0.47, -0.08274800967810289
0.471, -0.06810452138976474
0.472, -0.05319256536310369
0.473, -0.038071558138360564
0.474, -0.022800575563844166
0.475, -0.007439285423642113
0.476, 0.007952447602949069
0.477, 0.023312641477858356
0.478, 0.03858115783925257
0.479, 0.05369488491417123
0.48, 0.06860170828012317
0.481, 0.08323532661923094
0.482, 0.09754427025990138
0.483, 0.11146467560227649
0.484, 0.12494819861123728
0.485, 0.1379392719750265
0.486, 0.15038859200681695
0.487, 0.16224444797805876
0.488, 0.17346108975410462
0.489, 0.1839937492236232
0.49, 0.19380075145048253
0.491, 0.2028471484111194
0.492, 0.2110922105203463
0.493, 0.21850596226799418
0.494, 0.22505918270307093
0.495, 0.23072572982334852
0.496, 0.23548385600740948
0.497, 0.23931253740981842
0.498, 0.2422006534652406
0.499, 0.24413353007120528
0.5, 0.24511217651367184
0.501, 0.24511255639941995
0.502, 0.24415456207152827
0.503, 0.24223427769989075
0.504, 0.23936136080834175
0.505, 0.23554412157463306
0.506, 0.23079923651691392
0.507, 0.22514507862269031
0.508, 0.21860538057156692
0.509, 0.2112056359067711
0.51, 0.2029717680016343
0.511, 0.193940896113421
0.512, 0.18414617004394535
0.513, 0.17362617166194094
0.514, 0.16242246533303595
0.515, 0.15057806314684685
0.516, 0.13814221045123642
0.517, 0.12516165398702364
0.518, 0.11169031701305594
0.519, 0.09777467598072455
0.52, 0.08347743962605796
0.521, 0.0688493032945223
0.522, 0.05395412733006179
0.523, 0.03884315624436994
0.524, 0.02357860143324909
0.525, 0.008220813309518914
0.526, -0.007168038876046609
0.527, -0.022528586738054142
0.528, -0.03780124584133342
0.529, -0.05292576763047789
0.53, -0.06784227775411403
0.531, -0.0824900736664404
0.532, -0.09681422270424346
0.533, -0.11075783305852266
0.534, -0.12426331370603375
0.535, -0.1372803224625126
0.536, -0.14975681904759902
0.537, -0.16164614290768847
0.538, -0.17289639292795422
0.539, -0.18346766300491035
0.54, -0.19331258677607005
0.541, -0.20239910530971283
0.542, -0.21068773537181873
0.543, -0.21814933263332104
0.544, -0.22474785686292145
0.545, -0.23046388254689645
0.546, -0.23527109108811428
0.547, -0.23915252061721767
0.548, -0.24209449441285263
0.549, -0.24408085424588152
0.55, -0.24510693969726546
0.551, -0.24516864558774273
0.552, -0.24426550854274204
0.553, -0.2423989194046465
0.554, -0.23957947371273294
0.555, -0.23581778543879478
0.556, -0.23112601582295192
0.557, -0.22552647020327046
0.558, -0.21903613223252796
0.559, -0.2116870565470654
0.56, -0.20350348954634234
0.561, -0.19452129919795078
0.562, -0.18477035594922767
0.563, -0.17429446045201213
0.564, -0.1631302012032325
0.565, -0.15132656986631196
0.566, -0.13892676689745645
0.567, -0.12598084492672398
0.568, -0.11253686308684172
0.569, -0.09865026556665547
0.57, -0.08437724084188772
0.571, -0.06977099994935078
0.572, -0.05488992583372882
0.573, -0.039793297124858205
0.574, -0.024539970491077975
0.575, -0.009189531752642463
0.576, 0.006198190710679541
0.577, 0.021561328110570883
0.578, 0.036839859399298354
0.579, 0.05197066486567047
0.58, 0.06690162469773064
0.581, 0.08156625095267282
0.582, 0.09591307539506394
0.583, 0.10987819105555399
0.584, 0.12341312607985276
0.585, 0.1364622084284403
0.586, 0.14897591992069562
0.587, 0.16090234157756225
0.588, 0.17219547830229823
0.589, 0.18281025656447206
0.59, 0.19270470313095464
0.591, 0.2018437211836463
0.592, 0.21018621060240497
0.593, 0.2177017646358406
0.594, 0.22436076236217475
0.595, 0.23013681527596933
0.596, 0.2350078059130376
0.597, 0.2389522136072959
0.598, 0.24195860210058104
0.599, 0.2440117011091656
0.6, 0.24511217651367187
0.601, 0.24523548677296259
0.602, 0.24440100984046206
0.603, 0.24260446293059762
0.604, 0.23985486141936949
0.605, 0.23616014381118963
0.606, 0.23153641094072214
0.607, 0.22600157531272358
0.608, 0.2195790260782047
0.609, 0.2122937356856168
0.61, 0.20417105478140027
0.611, 0.19524757787709368
0.612, 0.18555616002033662
0.613, 0.1751349117781765
0.614, 0.1640249033873563
0.615, 0.15226870664125913
0.616, 0.13991515579223632
0.617, 0.12701056725723628
0.618, 0.11360855057801249
0.619, 0.09975523301973116
0.62, 0.0855130660207648
0.621, 0.0709325360059109
0.622, 0.05607706121212592
0.623, 0.04099765471197882
0.624, 0.025756288828748346
0.625, 0.010413227132161456
0.626, -0.004969452165409844
0.627, -0.020332569062997442
0.628, -0.03561667145759828
0.629, -0.05076146554458495
0.63, -0.06570713237040754
0.631, -0.08039280094467202
0.632, -0.09476344352390455
0.633, -0.10876220358866767
0.634, -0.1223313347488153
0.635, -0.1354203170985392
0.636, -0.14797696721003603
0.637, -0.1599542804140033
0.638, -0.17130007745732267
0.639, -0.18197411228507518
0.64, -0.1919286370171441
0.641, -0.20113139051687087
0.642, -0.20954248664046132
0.643, -0.21713219228365174
0.644, -0.22386399213812325
0.645, -0.22971819028182766
0.646, -0.23466797161210054
0.647, -0.2386957562930185
0.648, -0.24178748231367628
0.649, -0.24392624256101414
0.65, -0.24510693969726563
0.651, -0.24532483593959878
0.652, -0.24457882220388827
0.653, -0.24286981874845226
0.654, -0.24020760656808834
0.655, -0.23660233481586845
0.656, -0.2320654345845068
0.657, -0.22661858289179232
0.658, -0.2202783563268115
0.659, -0.21307616362361964
0.66, -0.20503545532226564
0.661, -0.19619148152669272
0.662, -0.18657369944555519
0.663, -0.17622527846158084
0.664, -0.16518220163981118
0.665, -0.1534929065305795
0.666, -0.14119994360643942
0.667, -0.12835293252847574
0.668, -0.11499944531544146
0.669, -0.10119445153550438
0.67, -0.08699388483220881
0.671, -0.07245053538406511
0.672, -0.05762226220107661
0.673, -0.04256808747924431
0.674, -0.02734647887060247
0.675, -0.012016852745643028
0.676, 0.0033610591935522745
0.677, 0.018725610181495503
0.678, 0.03401700913328562
0.679, 0.049172164413119404
0.68, 0.06413898887634277
0.681, 0.07885073286194039
0.682, 0.09325597181020294
0.683, 0.1072907698862936
0.684, 0.12090648865518694
0.685, 0.13404732675703748
0.686, 0.14666345669691733
0.687, 0.15870265920230753
0.688, 0.17011857745830827
0.689, 0.1808656753785357
0.69, 0.19090152686334427
0.691, 0.2001908264950255
0.692, 0.2086918990494369
0.693, 0.21637365975146966
0.694, 0.22320585813833993
0.695, 0.2291617272548988
0.696, 0.23421856496710527
0.697, 0.238354052311359
0.698, 0.24155625181892845
0.699, 0.24380892267068752
0.7, 0.24511217651367181
0.701, 0.24544064482111594
0.702, 0.2448128587965997
0.703, 0.2432239311449455
0.704, 0.2406818083891997
0.705, 0.237193808242022
0.706, 0.23277506456439995
0.707, 0.2274427113816193
0.708, 0.22121955206884097
0.709, 0.21412967036401284
0.71, 0.20619743589203932
0.711, 0.19745853767791008
0.712, 0.18794530970255532
0.713, 0.17769503873499426
0.714, 0.16674792749364897
0.715, 0.15514576662297833
0.716, 0.14293665419027843
0.717, 0.13016613301523164
0.718, 0.11688723347981769
0.719, 0.10314543919682079
0.72, 0.0890027112688337
0.721, 0.07450912549965695
0.722, 0.05972728565682611
0.723, 0.04470774774103819
0.724, 0.029512010568812273
0.725, 0.014200123734907668
0.726, -0.0011660576367900322
0.727, -0.01652774723039005
0.728, -0.031825792379940265
0.729, -0.0469998925465939
0.73, -0.06199039781358511
0.731, -0.07673621764909823
0.732, -0.09118223211943215
0.733, -0.10527172058334065
0.734, -0.11894674003428979
0.735, -0.1321565341013783
0.736, -0.14484874276825874
0.737, -0.15697583047264882
0.738, -0.16848520055872798
0.739, -0.1793360782550212
0.74, -0.18948011052058295
0.741, -0.19888474538206594
0.742, -0.2075094481948734
0.743, -0.21532350302373388
0.744, -0.22228960809707643
0.745, -0.22838764133827355
0.746, -0.23358995491087908
0.747, -0.237877913451666
0.748, -0.2412368098183283
0.749, -0.24364843431449984
0.75, -0.24510693969726555
0.751, -0.24560648038933072
0.752, -0.2451448081724106
0.753, -0.24372201310748506
0.754, -0.24134641654161906
0.755, -0.23802733266402265
0.756, -0.23377486872438522
0.757, -0.22860955376016753
0.758, -0.22254721190397403
0.759, -0.21561805665582048
0.76, -0.20784405924479163
0.761, -0.19925930597153665
0.762, -0.18989245764467894
0.763, -0.1797854787577054
0.764, -0.1689731854972193
0.765, -0.1575029339729471
0.766, -0.1454160063914763
0.767, -0.13276114682701012
0.768, -0.11958494325835131
0.769, -0.10594139591894108
0.77, -0.09188587142280912
0.771, -0.07747027643861729
0.772, -0.06275138485557155
0.773, -0.0477876270445433
0.774, -0.03263662298421944
0.775, -0.0173573479546441
0.776, -0.002009225463867188
0.777, 0.01334664747298031
0.778, 0.028651050519513648
0.779, 0.04384108436549952
0.78, 0.05886486594460228
0.781, 0.07365528957419197
0.782, 0.08816115851446031
0.783, 0.10231862874536471
0.784, 0.11607889065212672
0.785, 0.1293860435308412
0.786, 0.14218981289016863
0.787, 0.15443754736671983
0.788, 0.16608233619545992
0.789, 0.17707788927701973
0.79, 0.18738103986467633
0.791, 0.1969562144010261
0.792, 0.2057607494647686
0.793, 0.21376236174210253
0.794, 0.22092968767777227
0.795, 0.22723533384741812
0.796, 0.23265555838790597
0.797, 0.23716656954159288
0.798, 0.2407555349217783
0.799, 0.24340437464168418
0.8, 0.2451121765136719
0.801, 0.24585199186238815
0.802, 0.24564071679934107
0.803, 0.24447230109974816
0.804, 0.2423525787976323
0.805, 0.2392876413198618
0.806, 0.23529068068671471
0.807, 0.2303772527032565
0.808, 0.22456895929972331
0.809, 0.21788804973182876
0.81, 0.21035684975071955
0.811, 0.20200913747959046
0.812, 0.19287610798287894
0.813, 0.18299326938894342
0.814, 0.17239893450993365
0.815, 0.1611331617200697
0.816, 0.1492423899774966
0.817, 0.13677040451967
0.818, 0.12376886462536485
0.819, 0.11028172954749009
0.82, 0.09636974012586805
0.821, 0.08208190437189027
0.822, 0.06747888588208831
0.823, 0.05261003628315899
0.824, 0.03753559792258523
0.825, 0.02231490216936384
0.826, 0.0070090547408180656
0.827, -0.0083242874410111
0.828, -0.0236269143747729
0.829, -0.03883881896615726
0.83, -0.05390103436638327
0.831, -0.06875231684396958
0.832, -0.08333767380487352
0.833, -0.09760101840995741
0.834, -0.1114843203625047
0.835, -0.12493665050159801
0.836, -0.13790561047065547
0.837, -0.1503428407259514
0.838, -0.16219516699520162
0.839, -0.17342098331806824
0.84, -0.18397092590332031
0.841, -0.193812131524236
0.842, -0.20290294336246537
0.843, -0.2112107510123284
0.844, -0.21869678297776438
0.845, -0.225340255048198
0.846, -0.2311119165197596
0.847, -0.23599099500070217
0.848, -0.23996156825015416
0.849, -0.24300266812558213
0.85, -0.24510693969726552
0.851, -0.24626617108031407
0.852, -0.24647564004434125
0.853, -0.24573365557404597
0.854, -0.24404524017752027
0.855, -0.24141784478549294
0.856, -0.2378585169474284
0.857, -0.23338509926962692
0.858, -0.2280116387165768
0.859, -0.22176547171951186
0.86, -0.21466495448521208
0.861, -0.20674126630824244
0.862, -0.1980210103352865
0.863, -0.18854305174890226
0.864, -0.17833914561552158
0.865, -0.16745374281141498
0.866, -0.15592470019895638
0.867, -0.1437982548075511
0.868, -0.13111816535718515
0.869, -0.11793558363586891
0.87, -0.10430399122971755
0.871, -0.090272561763793
0.872, -0.07589476165771485
0.873, -0.0612269139567698
0.874, -0.04632382124643478
0.875, -0.031242635498046876
0.876, -0.016041259568737403
0.877, -0.0007785960623888478
0.878, 0.014488438440541753
0.879, 0.029698301759830185
0.88, 0.04480053812662761
0.881, 0.05972800882804293
0.882, 0.07443106844627251
0.883, 0.08884710103874534
0.884, 0.1029278478162042
0.885, 0.11661818078082543
0.886, 0.12986767117684347
0.887, 0.1426235650256672
0.888, 0.15483852124895367
0.889, 0.16646526335295259
0.89, 0.17745966741388494
0.891, 0.18778653424464234
0.892, 0.19740154509367766
0.893, 0.20627013287410556
0.894, 0.2143588559708505
0.895, 0.22163961966378345
0.896, 0.228086769925631
0.897, 0.23367329498587305
0.898, 0.23838478489296108
0.899, 0.2421987414067334
0.9, 0.2451121765136719
0.901, 0.2470943430274424
0.902, 0.2481580809301259
0.903, 0.24829462972424693
0.904, 0.2475041208902995
0.905, 0.24578954403525904
0.906, 0.24315867153735876
0.907, 0.23962263557680194
0.908, 0.23519968659774113
0.909, 0.229906603534405
0.91, 0.2237594055175781
0.911, 0.21678580425133875
0.912, 0.20901326599121087
0.913, 0.2004713406266837
0.914, 0.1911918183082758
0.915, 0.1812085452809053
0.916, 0.17056178240094863
0.917, 0.15928858326371895
0.918, 0.14743496197956366
0.919, 0.13503848989981193
0.92, 0.12215434112548829
0.921, 0.10882627532572683
0.922, 0.09510638412084334
0.923, 0.08103774961000912
0.924, 0.0666738888389186
0.925, 0.052069089762369784
0.926, 0.037279065436285896
0.927, 0.02235440464803617
0.928, 0.0073466247558593755
0.929, -0.0076888057225187045
0.93, -0.022699203927176337
0.931, -0.03762667457469995
0.932, -0.05242088515337776
0.933, -0.0670326978085646
0.934, -0.08140850774591621
0.935, -0.09550174044095552
0.936, -0.109265189743042
0.937, -0.12265274067227804
0.938, -0.13561470258159022
0.939, -0.1481121344894659
0.94, -0.1600977925618489
0.941, -0.1715442164534229
0.942, -0.18241193910796075
0.943, -0.19266729018897347
0.944, -0.20227243957519528
0.945, -0.21121146406693886
0.946, -0.21945595816153068
0.947, -0.22698362956496906
0.948, -0.23378155141977158
0.949, -0.23982448550953583
0.95, -0.24510693969726569
0.951, -0.24961847683653535
0.952, -0.253351604715983
0.953, -0.25630547874937654
0.954, -0.2584780796216881
0.955, -0.2598772996690538
0.956, -0.2605042025479404
0.957, -0.260372484357967
0.958, -0.2594971455891927
0.959, -0.2579002773377953
0.96, -0.25559032592773434
0.961, -0.25259225401267027
0.962, -0.24893141929224924
0.963, -0.24463885712494723
0.964, -0.23973821750217017
0.965, -0.23426631644112725
0.966, -0.22824923993278956
0.967, -0.22172692630652224
0.968, -0.21473402557373047
0.969, -0.20731162759104083
0.97, -0.1995095764160156
0.971, -0.19136647002121496
0.972, -0.1829194013323103
0.973, -0.1742164742928964
0.974, -0.16529715998722955
0.975, -0.15621022338867188
0.976, -0.1470069112141927
0.977, -0.13773204425314198
0.978, -0.12842519253817472
0.979, -0.11913764851888023
0.98, -0.10990706787109375
0.981, -0.1008022271407278
0.982, -0.09185557793511284
0.983, -0.08311298792221969
0.984, -0.07461123046875001
0.985, -0.06638785196940104
0.986, -0.05848506644112723
0.987, -0.05094399179311899
0.988, -0.04380220947265625
0.989, -0.03710419755415483
0.99, -0.030889154052734374
0.991, -0.025153816053602427
0.992, -0.019937768554687502
0.993, -0.015285777936662947
0.994, -0.01123969930013021
0.995, -0.0077846618652343755
0.996, -0.004921441650390625
0.997, -0.0027049499511718755
0.998, -0.0010609680175781252
0.999, -0.0001335388183593752
